w_t _weights_ip2[400] = {
0.47310847
, 0.39965984
, -0.092486419
, 0.34483784
, -0.68785852
, -0.037048411
, -0.05403129
, 0.093423285
, -0.57873219
, 0.40751928
, -0.17246832
, 0.11978661
, 0.0075496775
, -0.13430011
, -0.21312386
, -0.059128832
, 0.034273349
, 0.54700667
, -0.30274829
, -0.044503476
, -0.38283518
, 0.051910114
, -0.15511554
, -0.38729686
, -0.28481606
, -0.22921559
, -0.47893667
, 0.35921383
, 0.6110065
, -0.18330316
, 0.32654876
, -0.48535386
, -0.20180316
, -0.17548275
, -0.2472063
, -0.62504882
, -0.494142
, 0.097431436
, 0.47447202
, 0.1924108
, -0.2699329
, 0.24976467
, -0.32614151
, 0.41657603
, -0.023917831
, -0.35669395
, -0.31795529
, 0.18943012
, 0.39903876
, -0.3706831
, 0.9045139
, 0.55105072
, -0.31476295
, 0.52651948
, -0.027989464
, 0.53160578
, 0.035526089
, -0.25111562
, 0.14821385
, -0.44226936
, 0.46466669
, -0.54075027
, 0.050250404
, 0.14136811
, -0.15522589
, -0.16854073
, 0.47221574
, 0.59063292
, -0.4514834
, 0.48006681
, -0.4154664
, 0.2329518
, -0.41842052
, 0.14921841
, -0.19876818
, 0.13166684
, -0.36008039
, -0.44145453
, -0.089208372
, -0.301697
, -0.31595653
, -0.28736097
, -0.53166717
, -0.16567247
, 0.72024661
, -0.040512327
, -0.44217891
, 0.16145532
, 0.38799396
, 0.48243928
, -0.27985877
, 0.15287974
, -0.20075515
, -0.19124657
, 0.718666
, -0.53726721
, 0.50450122
, -0.021056939
, -0.3046304
, -0.35951298
, -0.69612819
, -0.15900497
, 0.18302511
, -0.68241316
, 0.57253492
, 0.22555254
, 0.28886202
, 0.86316657
, -0.45707926
, 0.03085833
, 0.31018546
, -0.34130698
, -0.064410076
, -0.30644667
, -0.25734735
, 0.26828846
, -0.074819207
, -0.05903586
, 0.23078108
, -0.21730949
, 0.36164257
, -0.64643371
, 0.052052062
, 0.44901004
, 0.52907008
, 0.35464385
, -0.29455686
, 0.78109694
, 0.24656604
, 0.072636083
, -0.50346804
, -0.26639771
, 0.23571673
, 0.19399677
, 0.062020093
, -0.15203844
, -0.17599604
, -0.075157732
, 0.15020309
, 0.60207254
, 0.28172183
, -0.20797488
, -0.25938934
, 0.2177403
, 0.30292708
, 0.68572235
, 0.59170693
, -0.14730443
, 0.290106
, -0.28908238
, -0.75835347
, 0.12823899
, -0.32216442
, 0.707565
, -0.32730028
, -0.0025066985
, 0.056271475
, -0.011572625
, -0.36153361
, -0.084461085
, 0.41634032
, 0.017611112
, 0.59999204
, -0.15519419
, -0.039541405
, 0.21245581
, -0.51271254
, -0.18379731
, -0.46593413
, 0.31980768
, -0.18094599
, 0.048965152
, 0.519179
, -0.29602557
, 0.066641174
, 0.026722025
, -0.22666244
, -0.7877003
, -0.35937056
, -0.5464595
, 0.073836133
, 0.29839581
, 0.5913223
, 0.10669287
, -0.29490569
, 0.09284018
, -0.010020901
, -0.32197258
, -0.33950734
, 0.59022641
, 0.080457471
, -0.19457138
, 0.31350055
, 0.291708
, 0.53146362
, 0.15210679
, 0.55391729
, -0.62218827
, 0.13616931
, 0.098432578
, 0.35824937
, -0.25276658
, -0.12059379
, 0.017003791
, 0.097411096
, -0.21883786
, 0.98056608
, -0.58430582
, -0.34374711
, -0.055741902
, 0.35331059
, 0.039653394
, -0.20159234
, 0.64937872
, -0.69998085
, -0.062070765
, -0.20069474
, 0.095275939
, 0.24577981
, 0.37919745
, -0.24611656
, 0.66547287
, -0.041240104
, 0.31943688
, 0.29074749
, -0.096379675
, 0.046273559
, -0.4211902
, 0.22074144
, -0.13917325
, -0.54505205
, 0.3092728
, 0.14010301
, -0.29625177
, -0.513724
, 0.67911077
, 0.22647165
, 0.54601645
, -0.36154941
, 0.41429147
, -0.24297345
, 0.7069428
, -0.71291071
, -0.34878054
, -0.47196546
, -0.038904179
, 0.80170423
, 0.29365683
, -0.60681182
, 0.34952632
, 0.048400164
, -0.080151007
, -0.47809213
, 0.20291851
, -0.19138388
, -0.060171947
, -0.10472027
, -0.035176847
, -0.38648167
, 0.033531353
, 0.21279389
, 0.63552976
, 0.0017859717
, 0.32474884
, -0.30243924
, 0.31406453
, -0.18196094
, -0.40797579
, -0.37199351
, 0.62562817
, 0.33568656
, 0.21092479
, 0.62633926
, -0.50467968
, -0.21439366
, -0.28562292
, -0.21405467
, -0.29749778
, 0.878253
, -0.45985603
, -0.44517118
, -0.49707156
, 0.15875161
, -0.17440346
, -0.31036812
, -0.42785186
, -0.081938326
, -0.10289776
, 0.15914734
, -0.71290743
, 0.045787964
, -0.36439914
, 0.689675
, -0.33520025
, 0.021503845
, 0.65494442
, 0.64227784
, 0.37722805
, 0.70058107
, 0.062062539
, -0.26818138
, -0.3192586
, 0.31460285
, -0.37381253
, 0.25436419
, -0.1047938
, -0.5668003
, -0.23874374
, 0.0070557562
, -0.26989102
, 0.14642832
, 0.23170237
, -0.67481118
, 0.30843309
, 0.70259941
, -0.46871141
, -0.37342995
, -0.13953012
, -0.4571968
, -0.33991367
, -0.37705234
, 0.55285096
, -0.219955
, 0.34405246
, -0.41021943
, -0.29589638
, -0.43399391
, -0.036055017
, 0.45370585
, 0.11884815
, -0.35155031
, -0.6442166
, -0.18193601
, 0.065871514
, 0.47275549
, -0.066400282
, -0.61659843
, -0.29521689
, -0.1878697
, 0.41130444
, 0.37095726
, 0.093481168
, -0.1843694
, 0.40759245
, 0.37356731
, -0.69579816
, 0.0247003
, -0.54942793
, 0.153369
, -0.36227366
, 0.72911304
, -0.16235135
, 0.56720167
, -0.54814637
, -0.35916653
, 0.0064334897
, 0.60116392
, -0.27797458
, -0.51072764
, -0.61485636
, 0.0017512745
, -0.12678373
, 0.51566511
, -0.5708397
, 0.015064265
, 0.63235974
, 0.12156083
, -0.68538153
, 0.28557637
, -0.47148865
, -0.24660169
, 0.16221648
, -0.39171782
, -0.40301466
, 0.30953595
, 0.050329592
, -0.31417716
, -0.25811949
, 0.5629968
, -0.24943234
, 0.29391426
, -0.30597922
, -0.95847458
, 0.18663463
, -0.63604963
, -0.11211501
, -0.057888232
, -0.16499954
, 0.62836605
, -0.77398735
, -0.088276707
, -0.1739587
, 0.61843085
, 0.37332386
, 0.45871589
, -0.074267067
, 0.48985359
, 0.82695776
, 0.22666514
, 0.57349092
};
