w_t _weights_conv1[125] = {
0.14962544
, -0.03853685
, 0.1838946
, -0.021650974
, -0.1088929
, 0.32078385
, 0.72969455
, 0.31889555
, 0.31011602
, 0.33304998
, -0.31485015
, 0.25192371
, 0.36338764
, 0.37174666
, 0.33706963
, -0.367589
, -0.48778462
, -0.33387172
, -0.45273989
, -0.13959666
, -0.48061457
, -0.47829846
, -0.44397202
, -0.19003108
, -0.21346138
, 0.399796
, 0.013162423
, -0.13230798
, -0.47013479
, -0.25775686
, 0.45182991
, 0.40999487
, -0.00088649755
, 0.057272919
, -0.19310616
, 0.25339428
, 0.3553769
, 0.0099924356
, 0.41795748
, -0.2265932
, 0.2054262
, 0.21741551
, -0.13531619
, 0.66400874
, 0.47520697
, -0.11355074
, 0.12000835
, 0.13970743
, 0.37031671
, 0.15969156
, -0.30865693
, 0.15874295
, 0.23599677
, 0.48027512
, 0.54291171
, -0.37410703
, -0.32236874
, -0.1315144
, 0.015259565
, 0.34895104
, -0.31256211
, -0.40975374
, -0.41639015
, -0.42875794
, -0.26436564
, -0.076010436
, -0.13670841
, -0.27603015
, -0.38990322
, -0.43190935
, 0.13012615
, 0.044586934
, -0.084154949
, 0.057234578
, 0.0069091725
, -0.29176751
, -0.42845219
, -0.44313776
, 0.095783226
, 0.68475878
, -0.43731168
, -0.55543172
, 0.21083915
, 0.51462114
, 0.5651589
, -0.43707445
, 0.046413098
, 0.3657462
, 0.61665732
, -0.084815837
, -0.26295373
, 0.22596113
, 0.17035834
, 0.083715387
, -0.081781149
, -0.036033511
, 0.12370387
, 0.06247757
, 0.14819528
, -0.11932411
, -0.28621829
, -0.33841661
, -0.098291233
, -0.26935348
, -0.3159489
, -0.27498871
, -0.60934836
, -0.48011065
, -0.28360429
, -0.36348146
, 0.23260067
, -0.19374615
, -0.15013652
, 0.11290982
, 0.311764
, 0.49267331
, 0.29854015
, 0.2040517
, 0.3412149
, 0.179577
, 0.35381797
, 0.59313118
, 0.588364
, 0.044145647
, 0.025824431
};
