w_t _weights_ip1[3200] = {
-0.16676578
, 0.086550109
, -0.1303744
, 0.099471219
, -0.1304666
, 0.095547564
, 0.21777287
, -0.09727852
, 0.026045095
, -0.0027734484
, -0.12705977
, -0.0082100267
, 0.1406735
, 0.13612382
, 0.12942336
, -0.010197407
, 0.022606444
, -0.16516596
, -0.026083833
, -0.0640259
, -0.062875316
, 0.10235149
, 0.17081943
, 0.0013371346
, 0.28111041
, 0.11253217
, 0.03343657
, 0.059172563
, 0.077793933
, -0.11159781
, -0.026567258
, -0.02636726
, -0.027366541
, 0.07430061
, -0.018637113
, -0.057644472
, 0.026886767
, -0.1399582
, -0.039282028
, 0.033859849
, -0.092970587
, 0.11653074
, 0.061150454
, -0.18166128
, 0.10050228
, -0.16734181
, -0.096455313
, -0.063840508
, 0.079959951
, 0.07609915
, -0.10749436
, -0.11564988
, 0.025251031
, -0.092086248
, -0.20752901
, -0.14386685
, 0.02922005
, 0.01083988
, -0.042657655
, 0.047326513
, -0.052232202
, 0.077828296
, 0.22491279
, -0.065659747
, 0.036661711
, -0.098885275
, 0.03091266
, 0.10231386
, -0.10194696
, -0.012698709
, -0.047068812
, -0.19263081
, 0.0081334077
, 0.086696833
, 0.14666818
, 0.23676035
, 0.072307736
, 0.23788853
, -0.11118031
, -0.015566328
, -0.03189981
, -0.020936849
, 0.077404566
, -0.045001414
, 0.022190202
, -0.15218946
, -0.020928442
, -0.019527707
, 0.0023882498
, -0.11700092
, -0.0750873
, 0.0049392623
, -0.039419021
, 0.18797402
, -0.016972788
, 0.17904717
, -0.17935209
, 0.017605839
, -0.073467791
, 0.00355981
, 0.14171369
, -0.055056985
, -0.12813194
, 0.20894617
, -0.27755037
, -0.13428758
, -0.097506173
, 0.12087022
, 0.097065933
, 0.13379544
, -0.1736784
, -0.051678844
, -0.088294283
, 0.056999318
, -0.040808294
, 0.16877095
, 0.026113244
, 0.12171247
, -0.049336758
, -0.0088601178
, -0.21341121
, 0.09246023
, 0.063623451
, 0.012546979
, 0.05298673
, 0.30002621
, 0.17358042
, -0.11165712
, -0.1066721
, -0.18385312
, 0.05297276
, -0.00074544863
, -0.11772519
, -0.10300031
, 0.053812843
, -0.12812267
, -0.28912511
, -0.26427078
, 0.0076865545
, 0.076490648
, -0.054170892
, -0.17423476
, 0.019637251
, 0.2367985
, -0.17237049
, -0.048950549
, -0.19179738
, 0.06651774
, 0.014884435
, -0.053501759
, 0.032235384
, -0.13064887
, 0.1229228
, -0.12223051
, -0.18057558
, 0.12436327
, -0.12975594
, -0.0078662811
, 0.010153351
, 0.0098078148
, 0.14058617
, 0.12035671
, 0.022240944
, 0.13703024
, -0.10857192
, 0.048534263
, -0.13133931
, -0.07815928
, 0.013235428
, -0.15745494
, -0.034088265
, 0.050629895
, -0.0052288454
, -0.0091203107
, -0.041896153
, 0.17131454
, -0.052548047
, -0.027552929
, 0.070886508
, -0.24116088
, 0.087488241
, -0.13978097
, 0.12584822
, -0.12548456
, 0.33651993
, -0.16217051
, 0.08528088
, -0.20241266
, -0.20068395
, -0.27146992
, -0.090187125
, -0.18455511
, -0.18574932
, -0.0386641
, -0.10997675
, -0.0070205638
, 0.0096480018
, -0.03119945
, 0.085632458
, 0.0072305161
, 0.050698582
, -0.03693087
, 0.029136946
, 0.11686036
, 0.011823201
, -0.10503449
, 0.0039982386
, 0.11879273
, 0.042122725
, 0.11687729
, 0.018756185
, 0.16766849
, -0.0032204075
, 0.0078535238
, -0.046333376
, -0.23881844
, -0.10881476
, -0.083849661
, -0.0035473143
, -0.0282875
, 0.10296655
, -0.071189284
, -0.19204482
, 0.065620646
, -0.059746362
, 0.1170101
, 0.029952083
, -0.14261666
, -0.12763867
, -0.10052297
, -0.037179455
, -0.19767831
, -0.093122378
, -0.041095182
, 0.077569366
, 0.068018869
, 0.016371584
, -0.020114508
, -0.13042417
, -0.1691608
, 0.14098841
, 0.10474097
, 0.12778874
, -0.0091972249
, -0.16314754
, -0.06103171
, -0.23093304
, 0.02037557
, -0.0865386
, 0.12923729
, -0.092851236
, -0.086428963
, 0.12666991
, 0.18947664
, 0.069659941
, 0.073627211
, 0.051878586
, -0.0664166
, 0.084176496
, 0.16773221
, -0.088892132
, -0.022826929
, -0.00041572136
, 0.057010535
, -0.10079027
, 0.11027344
, -0.15158276
, -0.14210449
, 0.056689516
, 0.23834382
, 0.092698269
, 0.017906331
, -0.018612182
, -0.12735955
, -0.23133768
, -0.26966959
, 0.031097576
, -0.13416284
, -0.12015024
, -0.079934195
, -0.069164366
, 0.13187441
, 0.13317995
, 0.072441772
, -0.14636338
, 0.07007277
, 0.13910809
, -0.1211054
, -0.0043022675
, 0.095499694
, -0.026869401
, 0.014229422
, 0.15926564
, -0.04319277
, -0.069573186
, -0.08500535
, 0.05109448
, 0.0064046611
, -0.017589452
, -0.036345672
, 0.11151356
, -0.061239243
, 0.13573758
, 0.20260826
, 0.13107808
, 0.052016374
, -0.071826123
, 0.10214738
, 0.19154596
, -0.15180553
, 0.075703032
, 0.158853
, 0.0090871612
, 0.097968355
, -0.028760623
, -0.11169661
, -0.025330815
, -0.14749707
, 0.16025706
, -0.058381878
, 0.135715
, -0.070076205
, 0.038419329
, -0.11956313
, 0.085524224
, 0.019711204
, 0.28127146
, -0.080097482
, 0.022230843
, -0.11381569
, 0.13902816
, -0.090545774
, -0.19101557
, 0.10787279
, -0.10057709
, 0.063694835
, 0.21605432
, -0.044110205
, -0.048878293
, -0.0964551
, 0.09049096
, -0.081285581
, 0.077177204
, -0.17166707
, 0.063264109
, -0.070098266
, -0.042943943
, -0.06335669
, -0.1348886
, 0.13797277
, 0.0048718564
, 0.05132968
, 0.20461281
, -0.11005209
, -0.26657808
, 0.0060286741
, 0.088524528
, 0.02831769
, 0.067997545
, 0.15320969
, -0.081133209
, -0.15250321
, -0.086938523
, 0.058221556
, -0.052945927
, -0.085803777
, 0.027838234
, 0.14263861
, -0.037846379
, -0.057671025
, -0.14070836
, -0.07188008
, 0.084411435
, -0.05174239
, 0.065083988
, -0.03777701
, 0.10844082
, 0.11594065
, 0.14676814
, 0.10298941
, 0.14581335
, 0.1081638
, -0.1099443
, 0.1531847
, 0.14034379
, 0.18815973
, -0.059410252
, -0.021421678
, 0.24631409
, 0.24404344
, 0.0806906
, -0.21077947
, 0.20298326
, 0.19533598
, 0.081049532
, 0.10071588
, -0.049182348
, 0.011523049
, -0.010194937
, 0.13698219
, 0.022174971
, -0.043717612
, 0.0048859981
, -0.15952069
, -0.075394094
, -0.14557321
, 0.36746338
, 0.03821886
, 0.0095614046
, -0.18168758
, -0.026099462
, 0.12010396
, 0.21579349
, -0.063401632
, -0.0291295
, -0.018711688
, -0.13605338
, -0.17342086
, -0.096472986
, -0.07056164
, -0.18404709
, 0.13314717
, 0.068432011
, -0.0960772
, 0.15103079
, 0.22687909
, 0.011334936
, 0.11841357
, -0.0099172452
, -0.18052101
, 0.14728326
, -0.030431479
, 0.00004282919
, -0.080372863
, -0.27592844
, -0.13003919
, 0.037808929
, 0.078331411
, 0.041676518
, -0.051408079
, 0.029382875
, 0.030492635
, -0.090403356
, -0.095213063
, 0.028855031
, -0.084778033
, -0.019102288
, 0.014992173
, -0.055609673
, -0.1457562
, -0.11514486
, -0.067139938
, -0.030312799
, -0.042473022
, 0.057090629
, 0.013649792
, -0.12904921
, 0.13726927
, -0.057868488
, -0.15435345
, 0.03698086
, 0.099133447
, -0.031088458
, -0.13414471
, 0.058957212
, -0.066448212
, 0.0048669376
, -0.18085371
, -0.0083308639
, -0.020045785
, 0.0552372
, 0.047215238
, -0.056686532
, 0.064885393
, 0.17358074
, -0.15572794
, 0.12004364
, 0.11885426
, 0.059332922
, -0.10790758
, 0.19286442
, -0.090369962
, -0.050518408
, 0.29499221
, 0.012114552
, -0.014433961
, -0.060356263
, -0.27365959
, -0.040939145
, 0.012779068
, -0.077754349
, -0.059870556
, -0.11265074
, -0.0099737085
, 0.15306127
, -0.076041311
, -0.018490126
, -0.19070879
, 0.011324177
, 0.398704
, -0.020432383
, -0.063282989
, 0.07502123
, 0.064704493
, 0.1395876
, -0.02134102
, 0.038388126
, -0.029431902
, -0.015829843
, -0.11507419
, 0.048472125
, 0.0025148583
, 0.017148418
, 0.24906978
, 0.25146487
, 0.20841365
, 0.10756729
, -0.084087774
, 0.12090919
, 0.093797326
, 0.12208547
, -0.23573437
, 0.050252073
, -0.29145369
, -0.038579963
, -0.17067547
, -0.17036802
, -0.126095
, 0.078329049
, -0.030548792
, -0.080966644
, 0.0033376731
, -0.17732839
, 0.044296674
, 0.073627532
, 0.43651542
, -0.14797606
, 0.0046264543
, 0.0027796549
, -0.079549469
, -0.077022932
, -0.046946879
, 0.029296648
, -0.21110412
, -0.13981786
, -0.056730352
, -0.17964502
, 0.15264146
, -0.011516087
, -0.12714483
, 0.054471165
, 0.38756052
, 0.045045722
, -0.04917435
, -0.10937344
, -0.0048375349
, 0.090419851
, 0.063216865
, 0.0098430738
, 0.02781898
, -0.0010594424
, 0.020506922
, 0.16963877
, -0.24779807
, -0.057987232
, 0.089556955
, 0.2081544
, 0.18089519
, -0.10820359
, 0.022648325
, -0.098844349
, 0.14320943
, 0.024255387
, -0.023491684
, -0.0062003504
, 0.069541149
, 0.018583115
, 0.02261181
, 0.045775868
, -0.15645215
, -0.45554477
, -0.052180126
, -0.050432302
, -0.10403521
, -0.37120724
, 0.12933365
, 0.067281514
, 0.051629331
, -0.065012716
, 0.16563275
, -0.13387287
, 0.041333631
, -0.11010656
, -0.24377918
, -0.082555391
, -0.0800447
, -0.09590663
, -0.030693464
, 0.13544253
, 0.21031977
, -0.0096930275
, -0.01140379
, 0.18007715
, 0.055204552
, 0.14184119
, 0.062090524
, -0.066664517
, 0.1843183
, -0.046728492
, -0.0055948803
, -0.02965066
, -0.069068566
, 0.16202928
, 0.05373133
, 0.00703727
, -0.01417251
, 0.077917881
, -0.085575931
, -0.0071258214
, 0.094034232
, 0.012697102
, -0.14975592
, 0.0705085
, -0.11864945
, 0.1261252
, 0.139278
, 0.10986505
, -0.14543453
, 0.15792163
, 0.0467947
, -0.06849999
, 0.048636187
, -0.18197802
, -0.13783944
, 0.090326793
, 0.16277806
, -0.19732642
, 0.0012326152
, 0.086133428
, 0.13559173
, 0.092459187
, 0.12777647
, 0.22021605
, -0.083537765
, -0.033355769
, 0.018258836
, 0.021092985
, 0.21657649
, -0.16737753
, 0.012146397
, 0.13960382
, -0.16037524
, -0.10335329
, 0.044493221
, -0.054139253
, -0.0085088136
, 0.050811872
, 0.14175791
, -0.048504997
, -0.17740989
, -0.004027911
, 0.10788098
, -0.20782104
, 0.10114764
, -0.18404058
, 0.10069757
, -0.012238031
, -0.023590842
, -0.15161163
, 0.21570678
, -0.093785256
, -0.096171372
, 0.14733465
, 0.023759622
, -0.03265002
, -0.093884304
, -0.00089839508
, 0.16539259
, -0.17115213
, 0.15009283
, -0.065112516
, 0.067984357
, -0.020887518
, 0.21063668
, -0.065426454
, 0.14500035
, 0.08713641
, -0.025960416
, -0.13465625
, -0.12308827
, -0.012748712
, 0.014169944
, 0.15750834
, -0.0014725255
, 0.066178605
, -0.0044073183
, 0.10311507
, 0.21561044
, -0.11265939
, -0.019998208
, -0.030141266
, -0.16579716
, -0.043213733
, 0.069536023
, 0.0023426751
, 0.031753752
, 0.20196499
, -0.011168573
, 0.21999641
, 0.25009006
, -0.0022721163
, -0.086042531
, 0.076488674
, -0.006690843
, 0.089929231
, -0.073280744
, -0.12920202
, -0.12066141
, 0.020496665
, -0.019165056
, -0.12511638
, 0.082657069
, -0.063873373
, -0.1880212
, 0.079719514
, -0.015645219
, -0.1393109
, 0.058079388
, -0.077392861
, -0.15792251
, -0.16592398
, 0.038860887
, 0.095849916
, 0.19182104
, 0.247899
, 0.1441076
, 0.0969544
, 0.041886803
, -0.13360545
, -0.15621191
, 0.080218814
, -0.17787601
, 0.07188718
, -0.034984816
, 0.17297967
, 0.088239864
, 0.12884201
, 0.022589624
, 0.14074208
, 0.18596062
, 0.21488167
, 0.08952973
, 0.031361766
, -0.06512513
, -0.024287011
, -0.11267992
, -0.0044703661
, 0.090943843
, -0.051662225
, 0.058197316
, -0.0029915792
, 0.071849152
, -0.006842827
, -0.10510877
, 0.074916452
, 0.0045355735
, -0.124978
, -0.045489717
, -0.078360364
, -0.08804363
, -0.22634234
, -0.11497084
, -0.095169969
, 0.044849936
, -0.19225699
, -0.16788827
, 0.026456995
, 0.03482163
, 0.097572044
, -0.046876095
, -0.068424612
, 0.12176036
, 0.2385319
, 0.10279538
, -0.14126936
, -0.10541491
, 0.084776185
, -0.15691626
, -0.14976856
, 0.042563785
, 0.09664274
, -0.19539836
, 0.12789305
, -0.0018976561
, 0.23727289
, 0.17347133
, 0.077215634
, -0.059226707
, 0.11634145
, 0.14060646
, 0.032201197
, -0.19911678
, 0.0707736
, 0.29354781
, 0.15021929
, 0.011563323
, -0.077221639
, -0.16730365
, -0.056845888
, -0.0023122523
, -0.065751307
, 0.0030524386
, -0.0042184596
, 0.17321216
, -0.028233843
, -0.11780804
, 0.084975548
, 0.097056746
, 0.025222514
, 0.3760868
, -0.0823273
, 0.070732661
, 0.087868221
, -0.0088585485
, 0.078401737
, 0.15120207
, -0.034138244
, -0.14103906
, -0.27064011
, 0.060309011
, 0.16014408
, -0.016131293
, 0.02662413
, -0.14096199
, 0.14369307
, 0.2695204
, 0.012610039
, -0.031886153
, -0.06508971
, 0.026703293
, 0.080086194
, -0.01127824
, 0.12365676
, 0.00011563248
, -0.010147549
, 0.12015539
, 0.11651824
, 0.030212639
, 0.13051222
, 0.12541483
, -0.024429245
, -0.13585901
, 0.013469351
, 0.031704661
, -0.094085366
, 0.027528243
, 0.066580608
, -0.016474012
, -0.10193205
, -0.073760107
, 0.16491415
, 0.15483677
, -0.043948039
, -0.083508141
, -0.038721558
, -0.060390845
, -0.12891993
, -0.029523369
, -0.08049012
, -0.21152739
, -0.041300431
, 0.025366955
, 0.12766585
, -0.14638856
, -0.18933007
, -0.14718248
, 0.079732776
, -0.0941584
, 0.023250798
, 0.056185685
, -0.053743411
, -0.15163518
, -0.11320604
, -0.032117054
, 0.012646432
, -0.061297119
, -0.012584678
, -0.20504916
, 0.093740858
, 0.062692918
, 0.14541681
, -0.034535836
, 0.035122253
, -0.01640407
, -0.18252753
, -0.20321894
, -0.079446025
, 0.0068310807
, -0.074892305
, 0.26727331
, -0.27549934
, 0.0061839717
, 0.016888134
, -0.077016614
, 0.20385063
, 0.25230771
, 0.1124851
, 0.16212791
, -0.11005419
, 0.055739291
, 0.10052686
, -0.065716431
, 0.060596112
, -0.027249916
, -0.099770054
, -0.032235011
, 0.058889311
, -0.1816344
, 0.04489008
, -0.035683855
, 0.063165285
, -0.070542261
, -0.081781924
, -0.14306428
, 0.02004979
, 0.026620792
, 0.010850992
, -0.12843919
, -0.021789281
, 0.0033038019
, 0.0079604108
, -0.03885163
, 0.071600541
, -0.085979708
, 0.010260543
, 0.04478858
, -0.042106602
, -0.066479392
, -0.05269213
, -0.042059775
, -0.036046561
, 0.03939632
, -0.25070634
, -0.073678978
, 0.026020387
, -0.058963764
, -0.1023045
, -0.065052748
, 0.034598112
, -0.053590529
, 0.045976032
, -0.055250518
, -0.019062936
, 0.075209849
, -0.25199553
, -0.11996246
, 0.052647393
, 0.052514344
, -0.1028598
, 0.016671062
, 0.021371685
, -0.044645213
, -0.12028525
, 0.10050444
, 0.20201741
, 0.162915
, -0.16953513
, 0.024724158
, 0.078445472
, 0.12694761
, 0.020390479
, 0.223577
, 0.077041417
, -0.16550153
, 0.0028377227
, -0.13105291
, 0.10991444
, -0.03874908
, -0.144596
, -0.071581483
, 0.010624288
, 0.054036964
, 0.16655973
, 0.0031245204
, 0.061877508
, -0.19740736
, 0.1240667
, -0.085480116
, -0.10749165
, -0.17393196
, 0.068935379
, -0.017294694
, -0.10185032
, -0.12235396
, -0.05287037
, -0.1993926
, -0.15547252
, -0.22428112
, 0.021194434
, 0.060015757
, -0.10388612
, 0.017969366
, 0.11848273
, 0.022935761
, 0.037289631
, -0.08132381
, -0.2106782
, 0.058516346
, 0.16516455
, 0.16241214
, -0.019131746
, -0.048334558
, 0.0630585
, 0.12771396
, -0.02103366
, -0.17971633
, 0.15446642
, -0.042359684
, 0.12601556
, 0.07480333
, 0.0028496464
, 0.081842072
, -0.15554926
, -0.15114054
, 0.1678666
, 0.29314551
, -0.092759177
, -0.14348352
, -0.026804315
, 0.10311873
, -0.16699986
, 0.0064133233
, -0.028908433
, -0.0067177163
, -0.086224616
, 0.17714691
, -0.10156585
, -0.10239714
, 0.0607326
, -0.0083280755
, -0.027205296
, 0.042132366
, 0.090344
, 0.034532011
, -0.10092676
, 0.15232803
, -0.086546279
, -0.2067195
, -0.044578694
, 0.098992959
, -0.0341797
, -0.28812942
, -0.049896721
, 0.10782759
, -0.13263372
, 0.20884462
, 0.0091007724
, -0.014361205
, -0.017413361
, 0.26666549
, -0.024890115
, -0.061486088
, 0.042625792
, 0.024417607
, -0.22816414
, 0.16854869
, 0.0387145
, -0.27838224
, -0.089136355
, 0.024564309
, -0.052213777
, 0.053780608
, -0.15961863
, -0.11179636
, -0.042673171
, 0.17525123
, -0.010423352
, -0.039162446
, -0.086642027
, 0.080819137
, 0.10926466
, 0.095760234
, 0.17541726
, -0.096690118
, 0.16130292
, -0.017319582
, -0.061833974
, -0.21950231
, 0.033089377
, -0.031542744
, -0.11596421
, -0.022392947
, -0.077808812
, 0.098865978
, 0.075599886
, 0.11870349
, 0.13865848
, -0.069985673
, -0.014333588
, 0.20585342
, 0.077405766
, 0.19533372
, 0.079257928
, -0.11944739
, 0.00014182652
, 0.045117892
, -0.15130748
, -0.0028516483
, -0.016123429
, -0.0037618056
, 0.02310745
, 0.067814246
, -0.023956493
, -0.021294048
, -0.052009944
, 0.21607614
, -0.01682907
, -0.0010306741
, -0.015674289
, 0.018833948
, 0.17845029
, 0.0013286783
, -0.065085642
, -0.19841482
, -0.053725738
, 0.15843132
, 0.058634333
, 0.11462779
, -0.10675327
, 0.044848695
, 0.10673068
, 0.10944934
, -0.07693512
, 0.02161414
, -0.18350711
, -0.093674824
, -0.0594083
, 0.030828271
, 0.017502436
, -0.20153622
, -0.003690507
, -0.023681547
, -0.13519669
, -0.050788164
, -0.1725038
, 0.092398062
, 0.0785298
, -0.036387213
, -0.0015622093
, 0.066884138
, -0.05868642
, 0.12186491
, 0.12686016
, -0.10714609
, -0.11168036
, -0.22091536
, 0.098335266
, -0.083526246
, -0.066081189
, 0.015967265
, -0.0013386681
, 0.17592219
, 0.01290834
, 0.27378613
, -0.1736834
, 0.04218534
, 0.093060888
, 0.096852116
, 0.066816024
, -0.15564287
, 0.069594994
, 0.049368467
, 0.04086569
, -0.19341309
, 0.085575454
, -0.13983746
, 0.086425222
, -0.046441581
, -0.09093862
, -0.063553184
, -0.025732819
, -0.032519367
, -0.10236018
, 0.071123511
, -0.062479276
, -0.019727042
, 0.17470132
, 0.065443367
, 0.1559196
, 0.047849584
, -0.06459292
, -0.017038783
, 0.071681954
, 0.21993445
, 0.036349624
, -0.13412935
, -0.11614598
, -0.085463084
, 0.10409661
, -0.11709543
, -0.13361527
, -0.12828323
, 0.18070994
, 0.020227473
, -0.14964788
, 0.045816705
, 0.12175858
, -0.020954985
, -0.05043681
, -0.0076397783
, -0.065229222
, 0.06426391
, -0.12401778
, -0.042059809
, 0.048683897
, -0.30131605
, 0.20960218
, 0.050117157
, 0.060403388
, 0.020389305
, 0.11056171
, 0.11890502
, 0.05316833
, 0.025510797
, -0.14595725
, 0.059570648
, -0.11842152
, 0.028309036
, -0.19017179
, 0.022561125
, 0.029115956
, -0.0076337652
, -0.016998949
, -0.19162773
, -0.09534467
, 0.081917353
, -0.20807518
, -0.081423812
, -0.15885171
, 0.11206657
, -0.087713279
, 0.029228039
, -0.0458591
, 0.054057788
, 0.016421851
, -0.076093979
, -0.2038372
, 0.03574935
, 0.14825977
, -0.11788008
, 0.061145563
, 0.14285213
, 0.041373886
, 0.045674261
, 0.012557829
, 0.010850348
, 0.13993664
, 0.0060692756
, -0.074343972
, 0.027177516
, 0.19211297
, 0.17645334
, -0.038188964
, -0.22662911
, 0.063453175
, 0.02294701
, -0.21908011
, 0.023435825
, 0.069075316
, 0.0060015218
, 0.034309715
, -0.09165781
, 0.080626644
, 0.037777778
, -0.17032462
, -0.063493162
, 0.15731949
, -0.0604799
, -0.1027193
, 0.13538957
, 0.065361977
, 0.11959442
, 0.091234341
, -0.029858876
, 0.23714654
, 0.0946022
, -0.11390854
, 0.042228457
, 0.11178843
, -0.073203117
, 0.036457442
, 0.25029382
, -0.041806228
, -0.21892089
, -0.13251439
, -0.065836221
, -0.037920434
, -0.03517811
, -0.069319315
, -0.021835789
, -0.31548417
, -0.31723613
, -0.024497617
, -0.17240074
, 0.11623809
, -0.19967787
, 0.050411783
, 0.027735114
, 0.06106469
, 0.0855474
, 0.11479335
, 0.16790707
, -0.066207588
, 0.026802985
, -0.026097832
, -0.097554862
, -0.047134735
, -0.041795664
, 0.089697734
, 0.099670917
, 0.1026563
, 0.078611851
, 0.079787157
, 0.16369949
, -0.018561387
, -0.049266037
, 0.1412029
, 0.16767059
, 0.060246125
, 0.236932
, 0.034437418
, 0.02611389
, 0.10379862
, 0.27870044
, 0.036306981
, 0.059138466
, 0.0860707
, 0.050806183
, 0.018913323
, -0.049993511
, -0.0089716762
, -0.090310425
, 0.11534421
, -0.01702608
, -0.032963645
, 0.069855325
, 0.076425083
, -0.15632007
, -0.044327457
, -0.13020132
, -0.047239549
, -0.0223728
, 0.0092608184
, 0.0039358041
, -0.15817913
, -0.041358192
, -0.16483013
, 0.081045426
, -0.027044009
, -0.064964823
, 0.048225
, -0.05928655
, 0.04378248
, -0.05224688
, 0.13839817
, 0.062284198
, -0.086507514
, 0.065019853
, -0.0051615261
, 0.094700843
, -0.17900491
, 0.028524481
, -0.095526449
, 0.098839864
, 0.17161947
, -0.090699665
, 0.22241098
, 0.091081165
, 0.01520128
, 0.027608585
, 0.0681964
, -0.028596433
, -0.13303138
, -0.11412235
, -0.26624659
, 0.011416719
, 0.067688711
, 0.068257332
, 0.21898705
, 0.002548313
, 0.018809661
, -0.021693684
, 0.057744678
, -0.017873971
, 0.13723603
, 0.15446132
, 0.04023084
, -0.072289959
, 0.015703106
, -0.10064331
, 0.11206298
, -0.11668436
, 0.0038993843
, -0.19717516
, -0.0075909481
, 0.11166944
, -0.053225413
, 0.18925902
, 0.056219835
, 0.15424982
, 0.067013212
, 0.12866519
, 0.15572907
, 0.18774869
, 0.055706162
, 0.071627289
, 0.11188295
, 0.037641756
, -0.038104728
, -0.16099007
, 0.035036072
, 0.025472971
, 0.11804691
, -0.11138853
, 0.073886827
, 0.041393936
, 0.10635143
, 0.019547435
, 0.077687941
, 0.0064030192
, 0.09392532
, 0.23014577
, -0.1074438
, -0.069957741
, -0.13188019
, 0.19456771
, -0.043123081
, 0.0037367342
, -0.0065042851
, 0.063844733
, -0.022223609
, 0.01016382
, 0.28596461
, -0.090233967
, -0.14021292
, 0.016440697
, 0.16679862
, -0.012089856
, -0.080104284
, -0.011905054
, 0.1151124
, -0.14084662
, -0.10398045
, 0.014215658
, -0.050259374
, 0.038017344
, 0.023121435
, 0.055112042
, 0.0039080484
, 0.060609523
, -0.10156637
, 0.00062873994
, -0.0065420484
, -0.01381023
, 0.033198584
, 0.1416865
, 0.11329452
, -0.24261272
, -0.31932765
, -0.1311698
, 0.043953177
, 0.12041093
, 0.14205569
, 0.079864681
, -0.14223124
, 0.13513602
, -0.034455135
, 0.014804882
, 0.020590991
, -0.0094085326
, 0.032767188
, 0.0098563433
, 0.031388078
, 0.069921672
, 0.020740543
, -0.19835001
, -0.24938071
, -0.1366412
, -0.0066776681
, -0.056520086
, -0.000077094577
, 0.10188556
, 0.054130871
, 0.074806422
, 0.073314488
, 0.14847532
, 0.012095826
, -0.10704665
, -0.018060332
, -0.020890983
, 0.19854677
, 0.11953723
, -0.18961401
, -0.084822841
, -0.18387099
, 0.066416487
, 0.21789484
, 0.13010056
, 0.065899588
, 0.084705554
, 0.0094106141
, 0.050781153
, 0.18635616
, -0.069262058
, -0.050912686
, -0.13745344
, 0.16029654
, 0.12389674
, 0.081690788
, -0.0607613
, 0.084155887
, 0.057828639
, 0.17644517
, 0.25787118
, -0.054364894
, 0.035249129
, -0.10899844
, 0.065343782
, -0.0011694549
, 0.088600464
, -0.019156123
, -0.11212793
, -0.047547426
, 0.031574186
, 0.11114515
, 0.13213062
, -0.10466277
, -0.096056655
, 0.14246842
, 0.18809474
, -0.007726735
, 0.014928542
, -0.11410491
, -0.0014742999
, -0.18961102
, 0.11413968
, 0.098694012
, -0.092430554
, 0.0849551
, 0.030261578
, -0.23138325
, -0.14162564
, 0.12600538
, 0.039884113
, 0.16842613
, -0.060541738
, -0.081984222
, -0.036521997
, -0.019263957
, -0.0055359676
, -0.017886342
, 0.032634828
, 0.22292432
, -0.046378843
, 0.039483327
, -0.21800296
, -0.19249959
, -0.12688529
, 0.11800849
, -0.055754554
, -0.023057105
, -0.14210954
, -0.0024545318
, 0.046410631
, 0.0030022357
, -0.031585481
, -0.050523423
, -0.1815764
, 0.10125218
, 0.13829155
, 0.010002055
, -0.027842935
, -0.068676405
, -0.095980555
, 0.067146458
, 0.027998766
, -0.04023109
, 0.18407705
, -0.0852294
, 0.099579476
, 0.1084385
, 0.28859758
, -0.019384647
, -0.15020637
, 0.18137869
, 0.19551033
, -0.025944455
, 0.021017043
, 0.14058301
, -0.29865268
, 0.062490925
, -0.056977
, 0.11094988
, -0.063910693
, -0.21661384
, -0.1843577
, 0.30888575
, 0.2427839
, -0.10103685
, -0.078987114
, -0.0649319
, -0.14980243
, -0.045067538
, 0.019216228
, 0.18994135
, -0.0768939
, -0.081641324
, -0.11536797
, -0.16186392
, -0.03203512
, 0.10198515
, -0.0060493369
, -0.21499038
, 0.18427576
, 0.018446216
, 0.070166379
, 0.074798614
, -0.027457453
, -0.067602567
, 0.043851279
, -0.087802418
, 0.0043943
, -0.098124526
, 0.056543633
, -0.11870202
, 0.2023131
, 0.096056379
, 0.029927518
, -0.022792166
, 0.0027774225
, -0.075359486
, 0.10213588
, -0.0010297979
, -0.0017706421
, 0.062791489
, -0.067941323
, -0.093341187
, -0.10460386
, -0.045467395
, -0.15105173
, -0.11072535
, 0.032503255
, -0.065098137
, -0.059081603
, 0.033707503
, -0.047410075
, -0.053582445
, -0.040538494
, -0.18885358
, -0.05940574
, 0.12589058
, 0.015454676
, -0.050542239
, -0.21063833
, 0.0050997292
, 0.0086024562
, -0.095527284
, -0.11324144
, 0.086881883
, -0.10955326
, -0.016041107
, 0.078462861
, 0.22426453
, -0.18961239
, 0.1845478
, -0.14846389
, -0.0054206173
, -0.00024712575
, 0.17173566
, -0.17470294
, -0.09340445
, -0.12317985
, 0.0042645866
, 0.2088335
, 0.002237479
, -0.0033010866
, 0.0057369159
, 0.049631253
, 0.062688448
, 0.013063387
, 0.049321391
, -0.021766085
, -0.00872995
, 0.12211479
, 0.12590688
, -0.14181052
, -0.068911307
, -0.21747789
, 0.10957657
, 0.064503938
, 0.13705294
, -0.064898811
, -0.042931408
, -0.020022929
, 0.012143326
, 0.0094072875
, -0.063084193
, 0.17911667
, 0.043348569
, -0.0065903086
, -0.03310781
, -0.12760459
, 0.084724113
, 0.042051215
, 0.13794667
, 0.06323123
, -0.10648514
, -0.060384855
, -0.064196013
, -0.12855557
, -0.058609042
, 0.037377734
, -0.2792815
, -0.0092484076
, -0.017229939
, -0.0092187952
, -0.053520937
, 0.048027463
, 0.0764044
, -0.11851391
, -0.012675312
, -0.11094435
, -0.1083385
, -0.043494143
, 0.1308931
, 0.12649709
, -0.16503242
, 0.17277086
, 0.045618463
, -0.12588899
, -0.030270226
, -0.038805503
, 0.075652912
, -0.042422634
, 0.019041628
, -0.21136078
, -0.10718776
, 0.31942186
, -0.16481377
, -0.046066765
, 0.043936573
, 0.21663779
, 0.17113398
, 0.19145861
, 0.046757836
, 0.14668368
, -0.024674099
, -0.01222623
, 0.053300757
, -0.0071680993
, 0.049650297
, -0.23144923
, -0.20673005
, 0.21969226
, 0.14811501
, 0.010992147
, 0.12610012
, 0.15273227
, 0.12001433
, -0.04565274
, 0.11619017
, 0.14035091
, -0.032888915
, -0.0068869721
, -0.11184947
, -0.21164943
, 0.24315774
, 0.14696537
, -0.0078679482
, -0.02354026
, 0.1303827
, -0.032399051
, 0.059669018
, 0.10371491
, -0.10880869
, 0.14126746
, -0.0041490179
, 0.10030416
, -0.051041882
, 0.10134864
, 0.035967559
, -0.080418482
, 0.10088994
, -0.20860119
, -0.030510955
, 0.062360596
, -0.035298593
, -0.044941746
, -0.0040027332
, 0.058097076
, -0.14533067
, 0.13697371
, -0.023415735
, 0.12903024
, 0.0784765
, -0.12862663
, -0.083486088
, 0.042822879
, 0.062595405
, -0.054976493
, -0.10806871
, 0.024549808
, 0.072364
, 0.088140219
, -0.014183198
, -0.041799445
, 0.092835769
, 0.044858716
, 0.12159635
, 0.15227951
, 0.015560742
, -0.18196832
, -0.11169237
, -0.059335757
, 0.12002248
, -0.16896792
, -0.41844577
, -0.31850696
, 0.21494317
, 0.031820182
, 0.10562469
, -0.10511558
, 0.054260693
, 0.059013981
, 0.15343907
, 0.18722945
, -0.036711518
, 0.092340752
, 0.031702079
, 0.17788017
, 0.061596062
, -0.096475504
, 0.10769787
, -0.039323308
, -0.088163354
, 0.099100091
, 0.18640661
, 0.19526945
, -0.073610611
, 0.077593543
, 0.2659581
, -0.17732996
, -0.059651643
, 0.089181811
, -0.078578249
, -0.028320499
, -0.0046279021
, -0.16588497
, -0.010706388
, 0.018017031
, 0.10817353
, 0.089965768
, -0.028254848
, 0.055294827
, 0.14375289
, 0.10601497
, -0.00014661058
, -0.065325744
, -0.012794211
, 0.095261961
, -0.038252741
, -0.08003144
, -0.011518543
, 0.1675643
, 0.062431633
, 0.16096202
, -0.062635772
, 0.0442056
, -0.0814812
, 0.24925421
, 0.0021800487
, -0.16758986
, 0.011664758
, -0.05419277
, -0.046277676
, -0.2047559
, -0.10631292
, -0.10602556
, -0.035618771
, -0.062437158
, -0.034476671
, 0.10382648
, -0.17258091
, -0.0092055639
, 0.12699577
, 0.089362912
, -0.044166043
, 0.057541851
, 0.12669337
, -0.00073775294
, -0.084724165
, 0.032961573
, 0.02725902
, -0.090991937
, 0.057148807
, 0.01017586
, -0.18738222
, 0.040182654
, -0.017961035
, -0.060058597
, -0.04899333
, 0.12899472
, 0.11750099
, -0.080103442
, 0.17986234
, 0.19979723
, 0.10883646
, 0.077927262
, 0.047740709
, -0.32965297
, 0.17459011
, 0.066797353
, -0.044689026
, 0.1201589
, -0.13781777
, -0.024547989
, -0.1210844
, 0.014442804
, 0.012752135
, 0.027226223
, 0.043025896
, -0.099996939
, 0.07466545
, 0.22932465
, -0.00903543
, -0.091055229
, 0.26179174
, 0.094542809
, -0.0035566534
, -0.029566554
, 0.013255601
, -0.036940977
, 0.047361393
, 0.025758024
, -0.065376982
, 0.053940244
, 0.012443947
, 0.016685035
, 0.16363947
, -0.081993319
, -0.24817494
, -0.074635021
, 0.090956084
, -0.010277642
, -0.16958122
, -0.18419437
, -0.041248582
, -0.047442853
, -0.12706052
, -0.033395737
, -0.037248734
, -0.0052918089
, 0.12936431
, 0.11475047
, 0.10424874
, 0.0011105861
, -0.040305495
, -0.078265786
, -0.1571922
, -0.077340633
, -0.061223581
, -0.13193823
, 0.10079621
, 0.19659896
, 0.10378607
, 0.047172636
, 0.18275918
, 0.10713225
, -0.10474388
, 0.21631606
, 0.12937821
, -0.13206305
, 0.0076239803
, 0.1277508
, 0.014031192
, 0.10631374
, 0.067503825
, 0.048183165
, 0.13713093
, 0.23340949
, -0.036510929
, 0.13454162
, -0.19035108
, 0.13412017
, 0.096055694
, 0.14515483
, -0.0078152772
, -0.058530521
, 0.11565305
, 0.06987118
, 0.0691507
, -0.039086077
, -0.10052244
, -0.091315836
, -0.072439924
, 0.046352446
, 0.078701563
, 0.11116655
, -0.10465276
, -0.069703288
, -0.0352981
, 0.130776
, 0.16011105
, 0.094398417
, 0.086550951
, 0.10808554
, 0.065669663
, 0.0016647171
, -0.0011379307
, 0.0079572322
, -0.28289679
, 0.015458619
, 0.12884705
, 0.046267752
, 0.10059549
, 0.14861472
, -0.020178635
, -0.074237213
, -0.1814879
, 0.050901294
, -0.069026366
, -0.022576695
, 0.066317827
, -0.019992385
, 0.0013436921
, -0.11600027
, 0.1360888
, 0.059659973
, 0.0058384575
, 0.1437747
, 0.09974432
, -0.021901131
, 0.11404631
, -0.026661554
, -0.00887631
, -0.15639623
, 0.0044594682
, 0.055361345
, 0.0499189
, 0.046380837
, -0.20278987
, -0.036263064
, 0.069573887
, -0.0788727
, 0.050518259
, 0.14147228
, 0.25174212
, 0.21486747
, 0.15131271
, 0.23997664
, 0.25402254
, -0.0029992957
, 0.012370478
, -0.18716826
, 0.1599007
, 0.12030709
, 0.053811368
, -0.20240958
, -0.049856808
, -0.15340477
, -0.055976667
, 0.040097903
, -0.24048212
, -0.053008642
, 0.19542728
, -0.18022728
, -0.0037493457
, 0.12615368
, 0.11776977
, -0.013843796
, -0.021490118
, -0.076455891
, 0.077186018
, -0.16247086
, -0.10578361
, 0.0893231
, 0.2721121
, 0.10942923
, 0.067091674
, -0.012556241
, 0.016898347
, -0.27926674
, 0.026859138
, 0.093416683
, -0.072319388
, 0.11543046
, 0.080165133
, 0.026909707
, -0.060585935
, -0.085084178
, -0.06392093
, 0.12675072
, 0.027116114
, -0.10090228
, -0.024403527
, 0.16816832
, 0.097782642
, -0.19148941
, -0.20517023
, -0.058759358
, 0.014582654
, 0.17655827
, -0.17505726
, -0.023636425
, -0.078837536
, -0.038571309
, -0.020082209
, -0.11920059
, -0.050806481
, -0.087833
, -0.073977351
, -0.09127178
, -0.0024114707
, 0.011095771
, 0.21496655
, 0.092757732
, 0.20954838
, -0.21575423
, -0.0590437
, -0.096465319
, -0.012616008
, -0.19534399
, 0.072338186
, -0.10557345
, -0.22433288
, -0.048515238
, 0.3064225
, -0.015607575
, -0.03577831
, 0.14008793
, 0.047658589
, 0.12803483
, -0.020175314
, -0.11116035
, -0.040693533
, -0.099123791
, -0.0650341
, 0.099503472
, -0.072235689
, 0.08118397
, 0.037039772
, 0.040714167
, -0.09788131
, 0.0032738529
, 0.098801546
, -0.17215255
, -0.010982263
, 0.073548041
, 0.10228411
, 0.13159345
, -0.091376469
, -0.026981428
, 0.24349414
, -0.30416828
, 0.24357407
, 0.15787299
, 0.14474885
, -0.24051021
, -0.036033072
, -0.10163855
, -0.13631897
, 0.14186896
, -0.016058823
, 0.071180075
, -0.13917117
, -0.14406569
, 0.050935183
, 0.30650276
, 0.16488139
, -0.022179313
, -0.253187
, -0.087160565
, -0.0048391605
, -0.06675683
, -0.099242546
, 0.16458769
, -0.27309945
, 0.29709309
, 0.019188147
, 0.11401571
, 0.1690831
, 0.24936023
, 0.1494133
, -0.033695292
, -0.045806974
, -0.074758142
, 0.079634875
, -0.12708804
, -0.048699409
, -0.25453433
, -0.009025638
, -0.12325475
, 0.033734787
, 0.023604013
, 0.099150114
, 0.1926745
, 0.10094129
, 0.079256691
, 0.04331049
, 0.19901289
, 0.082370505
, -0.041252464
, 0.13937417
, 0.043876451
, 0.11418195
, -0.17323847
, 0.15112136
, 0.087681919
, -0.025179772
, -0.095848151
, 0.049600121
, 0.084250651
, -0.034118459
, 0.19836371
, 0.0343633
, 0.0038805245
, -0.0014051958
, 0.019948058
, 0.015300812
, 0.052245673
, -0.11508604
, -0.29127944
, -0.096550696
, 0.022114711
, -0.13608959
, -0.096860461
, -0.046714827
, -0.0020718956
, -0.13095006
, 0.23379824
, 0.12955533
, 0.059084773
, 0.19050147
, 0.047350548
, -0.21828994
, 0.047490425
, 0.089933895
, 0.068305619
, -0.11993206
, -0.053303163
, 0.0031764982
, -0.0033440934
, 0.24695647
, 0.074685827
, -0.08455278
, -0.010202645
, -0.085351661
, -0.0066161547
, 0.10148772
, -0.0047882218
, -0.11274554
, 0.077798635
, 0.086233735
, -0.04578808
, 0.10228491
, 0.057193365
, 0.055492871
, 0.023008861
, 0.072703
, -0.28746897
, -0.035061475
, 0.067844383
, -0.092288993
, -0.051576942
, -0.018998852
, -0.061555333
, 0.0028522129
, -0.11009402
, -0.1189945
, -0.13431375
, 0.046507422
, -0.010817422
, -0.057830714
, -0.30334857
, 0.022712247
, -0.032729656
, -0.22037652
, -0.11634088
, -0.019342069
, 0.050123047
, -0.030167809
, 0.13659534
, -0.049500372
, -0.12919423
, -0.14870451
, -0.030719906
, -0.18119696
, -0.0062363492
, -0.069158733
, -0.16438287
, 0.052104127
, 0.078542955
, 0.034488987
, -0.21849871
, -0.16702819
, 0.045901716
, -0.045980744
, 0.29146329
, -0.076775134
, -0.10554818
, 0.074398935
, 0.091929816
, 0.042092543
, -0.0023890529
, -0.13443844
, -0.13295755
, 0.091727592
, -0.0036727593
, 0.067188039
, -0.24316338
, -0.10429167
, -0.37539709
, -0.13565986
, 0.048842259
, 0.19500116
, 0.10595895
, 0.033006325
, -0.14572348
, 0.06124182
, 0.055842768
, 0.0937979
, 0.13959001
, -0.17992644
, 0.0402656
, -0.12564914
, -0.042571798
, 0.013542399
, -0.037223004
, -0.24768622
, 0.007514243
, -0.035004035
, -0.014365838
, -0.060170561
, 0.043684479
, 0.064617164
, 0.15761061
, -0.23198433
, 0.11223929
, -0.13395625
, 0.095633686
, 0.069086075
, 0.01451441
, 0.12017141
, 0.00946688
, 0.098952912
, 0.23959048
, -0.21081211
, -0.058942117
, 0.087515987
, 0.057797957
, 0.063882589
, 0.12966748
, -0.0050232378
, 0.07261534
, 0.031944714
, -0.01798402
, 0.087363467
, -0.039421286
, 0.0742899
, 0.099746682
, -0.050490174
, 0.015712347
, 0.069267653
, 0.12878579
, 0.18764567
, 0.00976303
, -0.085785031
, 0.14884277
, 0.091322422
, 0.050591223
, -0.12721756
, -0.0091521535
, -0.0076129283
, -0.10461891
, -0.094984472
, -0.29318029
, -0.24143262
, -0.24823983
, 0.1165113
, -0.028004639
, -0.061200868
, 0.04614839
, 0.18356593
, -0.18362086
, -0.12599358
, 0.066336513
, 0.13234995
, -0.0033577506
, 0.0078772139
, 0.059621908
, -0.11953706
, 0.036497813
, 0.03568143
, -0.06020676
, 0.04729161
, -0.010807473
, -0.081774421
, 0.031774078
, 0.19182554
, 0.10725217
, 0.10056046
, 0.17838003
, 0.017188935
, -0.12746477
, -0.10494747
, -0.040787984
, -0.014229483
, -0.19393314
, -0.1577238
, -0.1927401
, -0.12904364
, 0.047436424
, 0.0057588662
, -0.08369574
, -0.17327781
, -0.32323802
, -0.16783966
, 0.082819149
, 0.31778285
, -0.062198859
, 0.15697584
, 0.10956814
, 0.069761164
, -0.010056113
, -0.018670006
, 0.07401792
, -0.037122171
, 0.19534211
, -0.022332536
, 0.059084941
, -0.1411251
, 0.006456885
, -0.28465769
, -0.025670096
, 0.086545877
, 0.17558508
, -0.07822793
, 0.0323062
, 0.13602714
, 0.006943719
, 0.12028772
, 0.11706351
, 0.038236953
, -0.051187754
, -0.099089548
, -0.05421422
, -0.17404073
, -0.075930253
, -0.017334141
, -0.017837632
, -0.26229906
, -0.26216888
, -0.14660805
, 0.13445334
, -0.012651714
, 0.014619182
, 0.10284521
, 0.0076798
, -0.042493347
, 0.014931714
, -0.11464603
, 0.0034195671
, 0.12208872
, -0.057087947
, -0.06199098
, 0.070284106
, -0.17240137
, -0.1899229
, -0.052112736
, 0.19437988
, 0.12306736
, 0.00016463615
, 0.072133265
, 0.12443229
, -0.054865886
, -0.10210457
, 0.098476611
, 0.062632658
, -0.13365228
, -0.010921817
, 0.10359275
, -0.22834979
, -0.20370919
, 0.098930843
, 0.12870632
, 0.058367103
, -0.0097024664
, -0.13945512
, -0.19059029
, -0.042839792
, 0.16830273
, 0.097851381
, -0.084948689
, 0.042498704
, 0.16589552
, -0.10149544
, -0.049811348
, -0.099170238
, -0.044426583
, 0.15144798
, -0.06171966
, -0.024538068
, -0.017126517
, -0.068121418
, 0.16313672
, 0.064527966
, -0.06753698
, -0.12071562
, -0.047646385
, 0.054542851
, -0.0366156
, -0.1600319
, 0.073687106
, 0.086324409
, -0.11810292
, -0.07317128
, 0.10882504
, -0.12076928
, -0.0047538639
, -0.03461007
, 0.13238738
, -0.0056729242
, 0.061792094
, -0.10723145
, 0.063174807
, 0.16504692
, 0.074983656
, -0.068145581
, 0.066719413
, -0.055940937
, -0.0064474763
, 0.0042254925
, -0.030765558
, -0.12923175
, 0.13072592
, -0.063243955
, 0.066888526
, 0.014986199
, -0.02366991
, 0.018257897
, 0.021500861
, -0.0016283484
, 0.079281859
, -0.15342388
, -0.020976981
, -0.013614476
, -0.14111423
, 0.016270276
, 0.01504706
, 0.014287521
, -0.07157895
, 0.015820906
, -0.14268224
, -0.0010541674
, 0.12448054
, -0.18976
, -0.027875971
, 0.10466035
, 0.1082679
, -0.008312094
, -0.058974043
, -0.073867656
, -0.058921095
, 0.1206824
, -0.086782254
, 0.0391136
, -0.25013515
, -0.33980691
, -0.098240905
, 0.027618613
, 0.1512406
, -0.022365559
, -0.08013808
, 0.11298518
, 0.12115244
, 0.035313379
, 0.052809328
, 0.084036015
, -0.0056916978
, -0.077039018
, 0.036710151
, -0.056297425
, 0.074639834
, 0.11472446
, 0.10531186
, 0.24028033
, 0.034070134
, 0.25501555
, 0.17238912
, -0.029575124
, -0.11812609
, 0.0039846739
, -0.0966135
, 0.073914438
, -0.14685887
, -0.064062245
, 0.068907306
, -0.23765267
, -0.12115391
, -0.088730887
, 0.020065896
, -0.033229716
, -0.09503898
, -0.0041330666
, 0.045245621
, 0.055605449
, -0.28318146
, 0.067477778
, 0.02574948
, -0.10826945
, -0.091484241
, -0.13192864
, -0.054069184
, 0.040625896
, -0.023299124
, -0.047888577
, -0.075888358
, -0.077549189
, 0.084121712
, -0.015082308
, -0.0083515784
, -0.073992543
, 0.13221264
, 0.15617728
, 0.22462648
, -0.18029842
, 0.023373771
, 0.038735181
, 0.15988679
, -0.043597113
, -0.073018149
, -0.0842364
, 0.067330994
, -0.16774516
, 0.034199219
, 0.071305588
, 0.25011712
, 0.04671393
, 0.014822466
, -0.010414819
, 0.172628
, 0.24447013
, -0.011447741
, -0.061364148
, -0.15095139
, -0.26271519
, 0.093692921
, 0.20384894
, -0.035733532
, -0.15353695
, -0.096819133
, 0.042981364
, 0.010092468
, 0.013202154
, 0.30124328
, 0.26195642
, 0.0034051514
, -0.11243423
, -0.1928647
, -0.076773331
, 0.081368923
, -0.015744811
, -0.0862243
, -0.12897693
, -0.177775
, -0.20564881
, 0.014188185
, -0.13870871
, -0.092255071
, 0.19964214
, 0.09500622
, 0.084981941
, 0.14876772
, 0.10083818
, -0.23026717
, -0.19828373
, -0.12641776
, 0.0066567706
, 0.050594226
, 0.16650589
, -0.14925076
, -0.1461807
, 0.0049421554
, 0.010974181
, 0.090690427
, -0.013448367
, -0.0126926
, 0.096740983
, 0.064335063
, 0.018529916
, -0.024933618
, 0.24810126
, 0.082437955
, -0.055251189
, 0.12032747
, 0.07493034
, -0.099954911
, -0.20842607
, 0.024425466
, 0.085467905
, 0.16400392
, -0.13197677
, -0.011822574
, -0.19576471
, 0.039222468
, -0.021313334
, 0.17360784
, 0.0937292
, -0.075364836
, -0.13756901
, 0.12462273
, -0.15671675
, -0.0022984648
, 0.00022436323
, 0.069449753
, -0.09081582
, -0.008244182
, -0.053480785
, 0.1136966
, 0.21143846
, 0.16890264
, 0.2277527
, 0.0097742667
, -0.30644152
, -0.22002922
, -0.26595628
, 0.02125439
, -0.062302221
, 0.01297304
, -0.015813846
, 0.0018524543
, 0.19801608
, 0.23285495
, -0.015421706
, 0.14778332
, -0.040584788
, -0.012478029
, 0.019986754
, -0.20020567
, -0.18623437
, 0.21052963
, -0.090493016
, 0.045200791
, 0.051694367
, -0.038286056
, 0.043996189
, -0.11021066
, -0.0706883
, 0.009632987
, 0.14059286
, 0.10340641
, -0.0042565446
, -0.17196216
, 0.14142388
, -0.22907509
, -0.10779925
, -0.031203257
, 0.20144308
, -0.028603673
, 0.059747469
, -0.10062224
, -0.00043340307
, 0.039276537
, 0.052496545
, 0.031132005
, -0.016982973
, 0.0842302
, 0.0054595992
, 0.040878434
, -0.15915135
, 0.10974739
, -0.2599538
, -0.15826803
, -0.05910027
, 0.066166878
, 0.018209642
, 0.015218887
, 0.014321259
, -0.065526269
, -0.083698861
, 0.10557918
, -0.065479532
, 0.012797222
, 0.0069254842
, -0.036617555
, -0.14807901
, -0.12708847
, 0.0023485655
, -0.1821475
, -0.12882498
, 0.11293804
, 0.035818096
, -0.091246381
, -0.11155109
, 0.018652406
, 0.13129717
, 0.091797978
, -0.19239126
, -0.0031695191
, 0.19381242
, 0.11305632
, -0.1390723
, 0.087758407
, 0.11380074
, 0.01753832
, 0.032137092
, 0.02003861
, 0.066114128
, -0.11748368
, 0.080782205
, -0.015613616
, 0.042538349
, 0.076262452
, -0.059728909
, 0.0342761
, 0.0068008788
, 0.0027172284
, -0.14705148
, 0.054964863
, 0.085953481
, -0.10516135
, -0.18138601
, -0.13523653
, -0.14660141
, -0.10049715
, 0.098778255
, 0.037116323
, -0.023504362
, 0.077017821
, 0.11952074
, -0.027716996
, -0.17323597
, 0.008525514
, 0.081113487
, 0.12989935
, 0.056015164
, 0.0045369291
, -0.12575264
, -0.12813425
, -0.00718692
, 0.019405097
, -0.11073954
, 0.13720581
, -0.04472645
, 0.031165857
, 0.10194733
, 0.16548511
, 0.017903851
, 0.038015492
, 0.19866873
, 0.12408175
, 0.041837905
, -0.035797257
, 0.15812609
, 0.077538982
, 0.1690515
, -0.11659187
, -0.034983803
, -0.0047949776
, 0.10970205
, -0.083295137
, 0.034370363
, 0.054241419
, 0.21384917
, 0.12102103
, 0.050598465
, 0.076447606
, -0.1003578
, 0.014302251
, -0.039847892
, -0.083167911
, -0.083676331
, 0.038223259
, 0.011337643
, 0.083511017
, -0.1215613
, 0.069080964
, -0.06096372
, 0.18589537
, 0.13321795
, 0.098664753
, -0.21176353
, 0.043690097
, 0.20231026
, -0.075730987
, -0.010579868
, 0.070298515
, -0.044955567
, -0.062534839
, 0.0081628524
, 0.23609702
, 0.19493848
, -0.070983067
, 0.032785051
, -0.028864572
, -0.029614456
, 0.1590371
, -0.26810497
, -0.070688322
, -0.091215685
, 0.051519521
, -0.23510012
, -0.1298694
, -0.094174281
, -0.094881877
, -0.18370795
, 0.090557374
, 0.15212193
, -0.058355194
, -0.0057683247
, -0.19935484
, 0.049496397
, -0.11696055
, 0.019088542
, -0.094048977
, -0.016606258
, -0.057654597
, -0.19377118
, -0.081641674
, -0.0650592
, -0.060220521
, -0.12844546
, -0.12930018
, 0.04673693
, -0.13298719
, -0.072713591
, 0.045799397
, 0.14854391
, 0.042195953
, 0.16803178
, -0.087668173
, -0.15554829
, 0.055740412
, -0.10607034
, -0.19119753
, -0.061818082
, -0.010903121
, 0.21594746
, -0.016264282
, 0.13472235
, 0.092613213
, -0.12662861
, 0.1417976
, 0.15811847
, 0.31517851
, -0.044411477
, 0.17809291
, 0.08342284
, 0.068638332
, 0.0045571555
, -0.035266019
, 0.15992333
, 0.08930207
, -0.023047889
, -0.01824395
, 0.071737118
, 0.17351767
, -0.098254018
, 0.040066756
, 0.12905793
, 0.00082775124
, -0.284049
, 0.16887493
, -0.003027692
, -0.12071688
, -0.04573359
, 0.0065043112
, -0.06802132
, 0.20338863
, 0.14543071
, -0.0597698
, 0.14449225
, -0.063401207
, 0.0819968
, -0.065258965
, 0.10693569
, 0.15019906
, 0.031847291
, 0.11385766
, -0.19127378
, -0.036785681
, -0.12510373
, 0.0037425673
, 0.17507252
, 0.0633378
, -0.084908284
, -0.03065438
, 0.085661411
, -0.08377409
, -0.036167335
, -0.019474557
, -0.22362258
, -0.044426706
, -0.23701023
, 0.076074988
, -0.017960189
, -0.0043147844
, 0.042667691
, -0.13126716
, -0.22554092
, 0.18590797
, 0.052553348
, -0.12243129
, 0.050183158
, 0.027622413
, 0.17037189
, 0.15128589
, -0.025727913
, 0.022735551
, -0.26274672
, 0.033817381
, 0.169271
, 0.047811907
, -0.057668891
, -0.23126085
, 0.1855927
, 0.31772619
, 0.23785172
, -0.098988548
, 0.10363446
, -0.11345774
, 0.069529139
, -0.088215142
, 0.018212829
, -0.039419573
, -0.16359323
, 0.20258863
, 0.21525943
, -0.047843721
, -0.05298721
, -0.011524144
, 0.022248641
, -0.11315306
, -0.021044092
, -0.028337045
, -0.053823192
, -0.14291207
, -0.074759513
, 0.026624713
, -0.11808344
, -0.12792708
, 0.023875551
, 0.10715859
, 0.051012937
, -0.0009051456
, 0.20438838
, -0.010359461
, 0.05507835
, -0.032988392
, 0.029781351
, -0.3667281
, -0.072969817
, 0.085516751
, -0.20796269
, -0.031445615
, 0.009536624
, 0.13438953
, 0.15492098
, 0.18749364
, 0.035953242
, 0.11786633
, 0.17157394
, 0.060046319
, 0.040790088
, 0.076943651
, 0.06731879
, 0.041028567
, 0.073203996
, 0.12654303
, 0.023957742
, 0.16646652
, 0.018120049
, -0.034810338
, -0.19412275
, -0.012566523
, 0.11685855
, -0.045140442
, -0.039484702
, -0.097852752
, 0.061713062
, -0.12430117
, -0.0072108293
, 0.1150879
, 0.072676271
, -0.08625982
, -0.13645262
, 0.031327374
, -0.012693399
, 0.13209595
, -0.032224894
, -0.14277476
, -0.19743378
, 0.00021856512
, -0.027492639
, -0.019184925
, -0.050553121
, -0.06982144
, 0.0099780848
, -0.01228531
, -0.10409411
, 0.041770305
, -0.0054599112
, -0.24198206
, -0.28715959
, 0.00584611
, -0.099218912
, -0.16272314
, 0.12430981
, 0.039030816
, 0.1200169
, -0.15344964
, -0.041826617
, 0.0033553455
, 0.037975755
, 0.086099543
, -0.13224119
, 0.21197078
, -0.11905322
, 0.2255823
, 0.031974144
, -0.1097146
, -0.16801894
, 0.16595821
, -0.032997709
, -0.0825076
, 0.036615439
, -0.15045811
, 0.0464019
, -0.022426127
, 0.055029109
, 0.0070837466
, 0.27080509
, 0.040263791
, 0.12766325
, 0.34040022
, -0.022715576
, -0.072058372
, 0.029679438
, -0.0239052
, -0.20686887
, 0.1159526
, -0.063644953
, -0.0696269
, 0.17822473
, 0.035195407
, -0.026886972
, -0.073833242
, 0.14262129
, -0.032830182
, -0.14633384
, -0.055766881
, -0.15967411
, -0.097068124
, -0.38667825
, -0.092114247
, 0.017234782
, -0.080311693
, 0.075203329
, 0.04569884
, -0.066881642
, 0.14632474
, 0.019885989
, -0.03412817
, 0.034233376
, -0.081069238
, -0.016761893
, 0.055765059
, 0.22071788
, 0.035439871
, -0.05141769
, -0.048181772
, 0.2571564
, -0.050246917
, -0.037600409
, 0.045028068
, 0.081117593
, -0.096372105
, 0.019095361
, -0.12442736
, 0.11113517
, 0.10461147
, 0.0011736297
, -0.011728754
, 0.11433137
, 0.046343606
, -0.10963728
, 0.059606075
, 0.0078987377
, -0.062898315
, -0.02951077
};
