w_t _weights_conv2[625] = {
-0.0075284122
, -0.085174233
, -0.073780619
, 0.015474118
, 0.0011796601
, 0.093674794
, 0.033012286
, -0.037589278
, -0.14957146
, -0.028647292
, 0.061898481
, 0.022268053
, -0.083002388
, 0.078720562
, 0.24012013
, 0.33129743
, 0.090840116
, 0.043336533
, 0.12405485
, 0.3361983
, 0.26199386
, 0.12339717
, 0.1006785
, 0.048382442
, -0.061896324
, -0.24530727
, -0.20598519
, 0.18805641
, 0.23278923
, 0.14161357
, -0.17399143
, -0.0025208248
, 0.17433432
, 0.1878791
, 0.20216013
, 0.071537115
, 0.032450356
, 0.023343105
, 0.078767084
, 0.34081879
, -0.0471854
, 0.028936185
, 0.050047625
, -0.011838822
, 0.10289963
, -0.089777365
, -0.06223309
, -0.1887024
, -0.16601741
, -0.23297343
, -0.065087788
, -0.02312923
, -0.040438175
, -0.12893558
, -0.17482388
, -0.22926702
, -0.18239303
, -0.052431356
, -0.010661659
, -0.10343564
, -0.051859111
, -0.19466609
, -0.24650669
, -0.13488185
, -0.096614935
, 0.073163033
, -0.19885117
, -0.2365728
, -0.18298587
, -0.14461379
, 0.17872973
, -0.0429465
, -0.057300132
, -0.055674054
, -0.080488808
, -0.049723748
, 0.0073951972
, -0.055282045
, -0.064392172
, -0.16597138
, 0.25278112
, 0.072236493
, 0.038807247
, -0.097824834
, -0.041155662
, -0.005823784
, 0.20438714
, 0.19323349
, 0.11356215
, 0.0018392152
, 0.06762065
, 0.17003044
, -0.082529508
, -0.043656487
, -0.13123102
, -0.15256773
, -0.072714075
, -0.038962465
, -0.099874444
, -0.036100645
, -0.010346046
, -0.079729937
, -0.045863692
, -0.193526
, 0.09873604
, 0.11366957
, -0.062343806
, 0.059241015
, 0.02825775
, 0.021430524
, 0.27081504
, 0.40635306
, 0.15977065
, 0.17568053
, 0.042041291
, 0.24375549
, 0.054385111
, 0.016388556
, 0.16020839
, -0.030252635
, -0.13539307
, 0.13957886
, -0.0011502267
, -0.056480218
, -0.021854194
, 0.12736355
, -0.038675271
, -0.028305965
, -0.11678658
, 0.072830833
, -0.21226391
, -0.1307658
, -0.14719893
, 0.061715972
, -0.012624446
, 0.14123502
, -0.080363706
, -0.16650255
, -0.012431418
, 0.080507837
, 0.16685937
, 0.18972692
, 0.23222139
, 0.16486897
, 0.23462786
, 0.1455141
, 0.14943705
, 0.22886446
, 0.19177759
, 0.085495375
, -0.31640828
, -0.14115484
, -0.0762544
, 0.012558137
, 0.13883863
, -0.088959128
, -0.15442173
, -0.077043705
, 0.2973786
, 0.28262407
, -0.15255843
, -0.1201013
, 0.02119555
, 0.37267572
, 0.49221721
, -0.26421258
, -0.22561555
, -0.09273687
, 0.039532378
, 0.29774618
, -0.27306288
, -0.31744131
, -0.074879907
, -0.18135516
, -0.33387074
, -0.044621512
, -0.15066616
, -0.079045676
, -0.043122791
, -0.16931446
, -0.048416108
, -0.26487458
, -0.11737144
, -0.11355014
, -0.29830989
, -0.25781518
, -0.15126517
, -0.093939945
, 0.081604004
, -0.13950999
, -0.038137577
, -0.07394027
, 0.17957284
, 0.25442168
, -0.10573293
, 0.073411226
, 0.10901555
, 0.33814642
, 0.19497599
, 0.28464755
, 0.17792252
, 0.14337157
, 0.18776272
, 0.15719661
, 0.13724987
, -0.039593112
, 0.25999916
, 0.14838101
, 0.28482103
, -0.066124812
, -0.078271076
, 0.042783033
, -0.15053707
, 0.078753561
, -0.011505643
, -0.23634852
, -0.31672448
, -0.34526554
, -0.14507827
, -0.20822933
, -0.18411559
, -0.25878945
, -0.42684284
, -0.21282724
, -0.19666865
, -0.010491754
, -0.039640669
, 0.010687134
, -0.027841615
, -0.13327277
, -0.0074426811
, 0.03517013
, 0.021027643
, -0.18758905
, 0.0432414
, -0.062756732
, -0.25916547
, -0.10130282
, 0.003683168
, 0.045409285
, -0.13638139
, -0.041885845
, -0.072608441
, 0.066940784
, -0.023648486
, -0.14732498
, -0.013894306
, 0.06700021
, 0.06839788
, -0.07718119
, -0.18970467
, -0.11705844
, 0.086613752
, 0.22564158
, 0.012541952
, -0.24410743
, -0.040519509
, 0.24677286
, 0.13211043
, 0.0366524
, 0.082295135
, 0.2444493
, 0.28069612
, 0.26962659
, 0.10214952
, -0.0541541
, 0.13283896
, 0.12537351
, 0.14294907
, 0.08717189
, -0.056714278
, -0.060035564
, 0.079725571
, 0.037606869
, 0.072492778
, -0.29692218
, -0.013933664
, -0.18911079
, 0.00040029373
, -0.27475664
, -0.26839003
, 0.0062677204
, 0.060384855
, 0.02522555
, -0.091903448
, -0.049151525
, 0.054747924
, 0.077355713
, -0.16295242
, -0.15852982
, 0.17526574
, 0.024582237
, -0.097942077
, 0.079228319
, 0.13717556
, 0.22705247
, 0.053789347
, -0.026502542
, 0.15989886
, 0.25157976
, -0.19696641
, -0.41690525
, -0.16224675
, -0.054923337
, 0.029990492
, -0.33100092
, -0.12851489
, 0.071045823
, 0.00014282737
, 0.01087197
, -0.18539527
, -0.062787689
, 0.22839068
, 0.29385722
, 0.18173595
, -0.16381145
, -0.021183854
, 0.15502378
, 0.25345361
, 0.0094990944
, 0.055071875
, 0.16249284
, 0.14170192
, 0.039165787
, 0.065561324
, 0.45875931
, 0.19495495
, 0.44953895
, 0.10270675
, 0.016778795
, 0.47627449
, 0.31356844
, 0.085694291
, 0.13506849
, -0.055062596
, 0.10513479
, -0.10583542
, -0.21279377
, -0.11431524
, -0.12043045
, -0.18863332
, -0.24515036
, -0.28219679
, -0.15295736
, -0.22262569
, -0.13809688
, -0.28847167
, -0.20234212
, -0.25334343
, -0.25963748
, 0.029849567
, -0.034815289
, -0.20619552
, -0.21434826
, -0.087799147
, -0.061449628
, -0.15853499
, -0.070250928
, 0.098966286
, 0.037863724
, -0.35532892
, 0.090743482
, 0.23547032
, 0.21607719
, 0.26195446
, -0.020777024
, 0.20561154
, 0.25160408
, 0.17704353
, 0.31351495
, 0.0875783
, 0.032798171
, 0.1077861
, 0.13575676
, -0.020566445
, 0.10940427
, 0.309316
, 0.30601138
, 0.012132842
, -0.098361559
, 0.0807404
, 0.17709371
, 0.07486473
, 0.04922628
, -0.056209978
, 0.023531066
, 0.0030834572
, -0.13218608
, -0.087542161
, -0.061383393
, -0.16967438
, -0.15463755
, 0.023554282
, 0.015918106
, 0.10469991
, 0.1575938
, 0.032542087
, 0.051131081
, 0.073950894
, -0.0027795709
, -0.29832444
, -0.18832088
, -0.21903686
, -0.41197503
, -0.34888265
, -0.32619777
, -0.21437187
, -0.23256552
, -0.34225127
, -0.19659361
, -0.034596805
, 0.038024858
, 0.20477062
, 0.06935174
, -0.10949553
, 0.17533121
, 0.11889599
, 0.18315126
, 0.0812039
, -0.025589503
, 0.22238176
, 0.083609425
, 0.01024543
, -0.032447398
, 0.051989563
, 0.39816168
, 0.17367133
, 0.26237008
, 0.078752786
, 0.024266696
, 0.25926962
, 0.27418789
, 0.18936405
, -0.070590749
, -0.12244386
, -0.030274399
, -0.05850881
, 0.11349829
, 0.05709232
, 0.091580488
, -0.0099120019
, -0.17160042
, -0.062833525
, 0.078827105
, 0.076147772
, -0.022647351
, -0.083092511
, 0.041569043
, 0.00071824249
, 0.037063219
, -0.040220629
, -0.0079587763
, 0.21598454
, 0.1227238
, -0.072836764
, -0.24502301
, -0.10927853
, -0.097897619
, -0.045897663
, -0.076294646
, -0.071318425
, -0.1371337
, -0.0949335
, -0.03195484
, -0.0578838
, 0.016237386
, 0.073494
, -0.070078842
, -0.20795688
, -0.098104805
, -0.058771428
, 0.088161439
, -0.049537804
, -0.093652733
, -0.062964275
, -0.107504
, 0.1485689
, 0.0723492
, 0.055997506
, 0.052873529
, 0.36240354
, 0.27576679
, 0.31032974
, 0.23435274
, 0.055028688
, 0.23452832
, 0.081729054
, 0.090079889
, 0.11895113
, 0.099280633
, 0.0073414464
, 0.088493273
, 0.15315354
, 0.11700456
, -0.02610933
, -0.086882107
, -0.021875743
, -0.12762795
, -0.10370582
, -0.0098689683
, 0.11608411
, -0.040682342
, 0.026553698
, 0.015514653
, 0.23664486
, 0.098733939
, 0.11829372
, -0.01320136
, 0.26331168
, 0.17812368
, 0.21865322
, 0.46512133
, 0.62625116
, 0.35522553
, 0.025533564
, 0.12675713
, -0.038527206
, 0.1484288
, 0.0081285061
, -0.017269557
, 0.083731584
, -0.048063353
, 0.085932672
, 0.06476105
, -0.088690192
, -0.047838744
, -0.071178824
, 0.012255542
, -0.1171677
, 0.0064954734
, 0.17119949
, 0.41051704
, 0.23147115
, 0.22185385
, -0.16051579
, -0.22304824
, 0.24001327
, 0.18305524
, 0.1719
, -0.035862323
, -0.13036302
, 0.0067370753
, -0.14851934
, -0.12827955
, -0.0032943066
, 0.11669268
, -0.025654243
, -0.17761979
, -0.13381734
, -0.074119
, 0.098719135
, 0.087480463
, 0.081162706
, 0.10266857
, 0.10369781
, 0.31760398
, 0.088750608
, -0.10495403
, -0.14550085
, 0.076268174
, 0.20612974
, 0.1907066
, 0.18251629
, 0.13308151
, -0.16964424
, 0.43850231
, 0.22129056
, 0.032182984
, -0.049195133
, -0.049278162
, 0.11808339
, -0.13748585
, 0.0075737424
, -0.10548013
, -0.19500478
, -0.02699226
, 0.0079609435
, 0.1017032
, 0.138451
, 0.23338221
, -0.19154705
, -0.35149476
, -0.15126461
, -0.057857387
, -0.0071252971
, -0.13114084
, -0.017238768
, -0.26524556
, -0.44159797
, -0.22900061
, 0.011453563
, -0.10133912
, -0.22111608
, -0.089837328
, -0.14875345
, -0.11348083
, 0.13337414
, 0.24038748
, 0.28475705
, 0.079952665
, 0.027730839
, -0.024934595
, 0.025289858
, 0.0224583
, 0.16511209
, 0.22010128
, 0.31139681
, 0.32644641
, 0.45042658
, 0.15213168
, 0.1619769
, 0.15850154
, 0.17241487
, 0.17412484
, 0.071723342
, 0.04202313
, 0.19194286
, 0.17472309
, 0.054162946
, -0.12475591
, -0.046463937
, 0.21424666
, -0.029643685
, -0.14482825
, -0.090465471
};